{"weights":[{"name":"kernel","shape":[4,8],"data":[0.6721258759498596,0.004341894760727882,-0.08879326283931732,0.612829864025116,-0.6509486436843872,1.0757392644882202,0.15511354804039001,0.28166162967681885,-0.5646719932556152,-0.1506303995847702,-0.5837851762771606,-0.5646325349807739,-0.06812262535095215,-0.36801135540008545,0.8723339438438416,-0.04468882083892822,0.30000215768814087,-0.2669224143028259,-0.047333747148513794,-0.3022458255290985,0.36279386281967163,0.1533014327287674,0.26287218928337097,0.003824889659881592,-0.5649774670600891,0.31465601921081543,0.8244438171386719,-0.5520724654197693,-0.26832640171051025,1.1982319355010986,0.15822629630565643,-0.5800909996032715]},{"name":"bias","shape":[8],"data":[0.0,-0.1151130199432373,0.8299975991249084,0.0,0.0,0.5080938935279846,-0.054955482482910156,0.0]},{"name":"kernel","shape":[8,3],"data":[0.4634919762611389,-0.3870626389980316,0.31864672899246216,-0.6768856048583984,0.2127014398574829,-0.24186721444129944,0.16766542196273804,0.07370692491531372,0.9033873677253723,-0.6585859656333923,0.30681031942367554,-0.7017256021499634,0.6440696120262146,-0.29100099205970764,-0.3732037842273712,-0.6347373127937317,-0.1507636308670044,1.0851529836654663,-0.09056252241134644,-0.6119987368583679,-1.248996615409851,-0.24066796898841858,-0.679793655872345,0.40366309881210327]},{"name":"bias","shape":[3],"data":[0.0,0.0,0.43119585514068604]},{"name":"kernel","shape":[3,8],"data":[0.17579132318496704,-0.19865649938583374,0.3503848910331726,0.11172765493392944,0.12356436252593994,0.4853129982948303,-0.12157440185546875,-0.47304680943489075,0.5746449828147888,0.2164020538330078,0.011849582195281982,-0.3331209421157837,-0.16368311643600464,-0.6499837040901184,-0.34796833992004395,-0.5563464164733887,0.4260151982307434,-0.48092108964920044,-0.032451510429382324,-0.2615370750427246,-0.1701953411102295,0.9674850702285767,0.7148194909095764,0.9962771534919739]},{"name":"bias","shape":[8],"data":[0.011416809633374214,0.0,0.0,0.0,0.0,0.27631494402885437,0.06057098135352135,0.3469681143760681]},{"name":"kernel","shape":[8,4],"data":[0.07239413261413574,0.0778145045042038,-0.37997865676879883,-0.285015732049942,0.32431668043136597,0.09987908601760864,-0.2511829137802124,0.6233908534049988,0.26878172159194946,-0.02364403009414673,-0.1272318959236145,0.39467018842697144,-0.08877813816070557,0.1764371395111084,0.026218712329864502,-0.5278444290161133,0.27839189767837524,-0.5275384187698364,0.06845760345458984,-0.3918134570121765,-0.6308112740516663,-0.44192543625831604,-1.0847015380859375,0.642687976360321,-1.0323634147644043,-0.5081778764724731,-0.14044277369976044,-0.3339211344718933,-1.1686137914657593,0.1010192409157753,-0.6732797026634216,-0.5977046489715576]},{"name":"bias","shape":[4],"data":[-0.22426298260688782,0.37872642278671265,-0.3146301507949829,-0.22100743651390076]}],"threshold":0.07599212788045406,"architecture":[{"units":8,"activation":"relu","inputShape":[4]},{"units":3,"activation":"relu"},{"units":8,"activation":"relu"},{"units":4,"activation":"sigmoid"}]}