{"weights":[{"name":"kernel","shape":[3,16],"data":[0.4268217086791992,0.37974727153778076,0.7362438440322876,0.21746478974819183,-0.48418912291526794,-0.4934007525444031,0.3177326023578644,0.45682448148727417,-0.10215413570404053,0.3573249876499176,0.4314218759536743,0.7194918990135193,0.7619832754135132,-0.055541813373565674,-0.48839622735977173,0.4327166974544525,-0.4998508095741272,0.19454343616962433,0.7847967147827148,0.15900073945522308,-0.03345566987991333,0.5496732592582703,-0.07234092801809311,-0.4163990318775177,-0.15011000633239746,0.3883444666862488,-0.4001980721950531,0.23834553360939026,0.12078583240509033,-0.04561018943786621,-0.2397426962852478,0.388652503490448,-0.3696405291557312,-0.002849725540727377,0.20442883670330048,0.07748342305421829,-0.0874268114566803,-0.14098025858402252,-0.25823259353637695,-0.0672772228717804,0.4570898413658142,-0.26469162106513977,-0.44951143860816956,0.25231337547302246,0.5605688095092773,-0.2986806035041809,-0.14612933993339539,-0.2696542739868164]},{"name":"bias","shape":[16],"data":[0.0,-0.006699163466691971,0.27148377895355225,0.17044636607170105,0.0,-0.00696266395971179,-0.024138931185007095,0.0,0.0,0.205741286277771,0.0,0.22048482298851013,0.2983018159866333,0.0,0.0,0.07762404531240463]},{"name":"kernel","shape":[16,8],"data":[-0.40744268894195557,-0.32742440700531006,-0.45453643798828125,-0.3696495294570923,-0.304858922958374,-0.3368183374404907,0.4712866544723511,0.3713897466659546,0.26361823081970215,-0.3298247456550598,-0.11408630758523941,-0.3201517164707184,-0.09817076474428177,-0.010348120704293251,0.2130126953125,-0.12677346169948578,0.3602650463581085,-0.23192034661769867,0.4561544954776764,-0.1747920662164688,0.09012620151042938,-0.2531287968158722,0.7769644260406494,0.1469324380159378,0.19901520013809204,-0.17776304483413696,0.26043596863746643,-0.5764849781990051,0.15972000360488892,-0.4642440974712372,0.41212865710258484,-0.5265536904335022,-0.31563758850097656,0.009418249130249023,-0.15125024318695068,-0.10459363460540771,0.3738391399383545,0.19925057888031006,-0.07145977020263672,-0.023561477661132812,0.07495173811912537,0.126652330160141,0.05171062424778938,0.08646360039710999,-0.37025052309036255,-0.5326624512672424,0.7035234570503235,0.3137362003326416,0.024012193083763123,0.05324399471282959,-0.3815416395664215,0.1926296353340149,-0.33196523785591125,0.4593352675437927,0.07249157875776291,0.10831356793642044,-0.2600008249282837,-0.44463956356048584,-0.09435248374938965,-0.24520409107208252,0.27403724193573,-0.2608973979949951,-0.060277581214904785,0.40471601486206055,0.3546743392944336,0.2138005495071411,-0.3742353916168213,0.3324233293533325,0.43275225162506104,-0.3028090000152588,0.4066596031188965,-0.31569039821624756,-0.21812377870082855,0.0062917908653616905,0.5392244458198547,0.1949874460697174,-0.3738461434841156,-0.5195868611335754,0.02970379777252674,-0.18977683782577515,0.29717397689819336,-0.4152829647064209,0.009566545486450195,-0.42552924156188965,-0.45900118350982666,0.25104355812072754,-0.3849928379058838,0.3142310380935669,-0.5398344993591309,0.08366523683071136,0.7003952860832214,0.2904230058193207,0.09581448137760162,-0.27236902713775635,-0.13296544551849365,-0.45944079756736755,-0.45501118898391724,-0.13045962154865265,0.7807032465934753,-0.18586674332618713,-0.04978051781654358,0.29157552123069763,0.44792625308036804,-0.09494207799434662,0.3260993957519531,-0.16361689567565918,0.05032503604888916,0.4035228490829468,-0.26286065578460693,0.4748375415802002,0.43909430503845215,0.06995117664337158,0.3758014440536499,-0.09800994396209717,0.13091492652893066,-0.09866714477539062,0.20264661312103271,-0.35730767250061035,-0.3216423988342285,-0.20415329933166504,-0.4676032066345215,0.3244304955005646,0.5358901023864746,0.30887895822525024,-0.36132609844207764,0.35584181547164917,0.6486483216285706,0.2886016070842743]},{"name":"bias","shape":[8],"data":[-0.0873396024107933,-0.08680596947669983,0.24889779090881348,-0.09881897270679474,-0.08052186667919159,-0.04105619341135025,0.2733783423900604,-0.08733963221311569]},{"name":"kernel","shape":[8,1],"data":[0.040693823248147964,0.5363008379936218,-0.536007285118103,0.23804758489131927,0.583421528339386,0.0249085184186697,-0.33542823791503906,0.4155648350715637]},{"name":"bias","shape":[1],"data":[-0.1957024186849594]}],"architecture":[{"units":16,"activation":"relu","inputShape":[3]},{"dropout":0.2},{"units":8,"activation":"relu"},{"units":1,"activation":"sigmoid"}],"delay_rates":{"6a27e87acedbe06b34cc98a4":0.0}}